<?xml version="1.0"?>
<opencv_storage>
<cascade>
  <stageType>BOOST</stageType>
  <featureType>HAAR</featureType>
  <height>24</height>
  <width>24</width>
  <stageParams>
    <boostType>GAB</boostType>
    <minHitRate>9.9500000476837158e-01</minHitRate>
    <maxFalseAlarm>5.0000000000000000e-01</maxFalseAlarm>
    <weightTrimRate>9.4999998807907104e-01</weightTrimRate>
    <maxDepth>1</maxDepth>
    <maxWeakCount>100</maxWeakCount></stageParams>
  <featureParams>
    <maxCatCount>0</maxCatCount>
    <featSize>1</featSize>
    <mode>BASIC</mode></featureParams>
  <stageNum>13</stageNum>
  <stages>
    <!-- stage 0 -->
    <_>
      <maxWeakCount>6</maxWeakCount>
      <stageThreshold>-1.8408145904541016e+00</stageThreshold>
      <weakClassifiers>
        <_>
          <internalNodes>
            0 -1 34 1.0936848819255829e-01</internalNodes>
          <leafValues>
            -9.0163934230804443e-01 3.4482758492231369e-02</leafValues></_>
        <_>
          <internalNodes>
            0 -1 58 -1.8566187471151352e-02</internalNodes>
          <leafValues>
            1.0481426119804382e-01 -6.9170409440994263e-01</leafValues></_>
        <_>
          <internalNodes>
            0 -1 82 1.6291424981318414e-04</internalNodes>
          <leafValues>
            1.3051171600818634e-01 -7.8355687856674194e-01</leafValues></_>
        <_>
          <internalNodes>
            0 -1 24 5.4120138520374894e-04</internalNodes>
          <leafValues>
            1.5018485486507416e-01 -8.0765515565872192e-01</leafValues></_>
        <_>
          <internalNodes>
            0 -1 13 9.3165418365970254e-04</internalNodes>
          <leafValues>
            1.7353230714797974e-01 -7.5179010629653931e-01</leafValues></_>
        <_>
          <internalNodes>
            0 -1 86 1.8957460997626185e-04</internalNodes>
          <leafValues>
            2.5613996386528015e-01 -5.7623153924942017e-01</leafValues></_></weakClassifiers></_>
    <!-- stage 1 -->
    <_>
      <maxWeakCount>6</maxWeakCount>
      <stageThreshold>-1.6897294521331787e+00</stageThreshold>
      <weakClassifiers>
        <_>
          <internalNodes>
            0 -1 79 3.4395713359117508e-02</internalNodes>
          <leafValues>
            -8.9194315671920776e-01 6.3636362552642822e-01</leafValues></_>
        <_>
          <internalNodes>
            0 -1 59 -1.3272285461425781e-02</internalNodes>
          <leafValues>
            4.0297094732522964e-02 -6.8855738639831543e-01</leafValues></_>
        <_>
          <internalNodes>
            0 -1 17 2.5579845532774925e-04</internalNodes>
          <leafValues>
            1.3136221468448639e-01 -7.0695567131042480e-01</leafValues></_>
        <_>
          <internalNodes>
            0 -1 88 1.7177473637275398e-04</internalNodes>
          <leafValues>
            1.7014975845813751e-01 -7.6869416236877441e-01</leafValues></_>
        <_>
          <internalNodes>
            0 -1 28 -3.0970090301707387e-04</internalNodes>
          <leafValues>
            -8.2752561569213867e-01 1.6184924542903900e-01</leafValues></_>
        <_>
          <internalNodes>
            0 -1 49 -5.7842163369059563e-04</internalNodes>
          <leafValues>
            4.1678473353385925e-01 -3.2869750261306763e-01</leafValues></_></weakClassifiers></_>
    <!-- stage 2 -->
    <_>
      <maxWeakCount>6</maxWeakCount>
      <stageThreshold>-1.6446326971054077e+00</stageThreshold>
      <weakClassifiers>
        <_>
          <internalNodes>
            0 -1 67 -9.0976066887378693e-02</internalNodes>
          <leafValues>
            3.8461539149284363e-01 -8.9173787832260132e-01</leafValues></_>
        <_>
          <internalNodes>
            0 -1 48 -4.0955830365419388e-02</internalNodes>
          <leafValues>
            3.9797979593276978e-01 -5.7839965820312500e-01</leafValues></_>
        <_>
          <internalNodes>
            0 -1 32 6.0944515280425549e-04</internalNodes>
          <leafValues>
            9.9081948399543762e-02 -9.6694558858871460e-01</leafValues></_>
        <_>
          <internalNodes>
            0 -1 50 -1.3797186315059662e-02</internalNodes>
          <leafValues>
            4.8260125517845154e-01 -3.4291446208953857e-01</leafValues></_>
        <_>
          <internalNodes>
            0 -1 0 2.1919347345829010e-03</internalNodes>
          <leafValues>
            1.9357451796531677e-01 -9.0607315301895142e-01</leafValues></_>
        <_>
          <internalNodes>
            0 -1 90 -1.8759249360300601e-04</internalNodes>
          <leafValues>
            -7.7540022134780884e-01 1.4989475905895233e-01</leafValues></_></weakClassifiers></_>
    <!-- stage 3 -->
    <_>
      <maxWeakCount>6</maxWeakCount>
      <stageThreshold>-1.6548416614532471e+00</stageThreshold>
      <weakClassifiers>
        <_>
          <internalNodes>
            0 -1 5 2.3442333936691284e-01</internalNodes>
          <leafValues>
            -9.0347492694854736e-01 6.6666670143604279e-02</leafValues></_>
        <_>
          <internalNodes>
            0 -1 21 6.9140523672103882e-02</internalNodes>
          <leafValues>
            -6.1821186542510986e-01 2.3325431346893311e-01</leafValues></_>
        <_>
          <internalNodes>
            0 -1 30 -1.1348759755492210e-02</internalNodes>
          <leafValues>
            4.1887509822845459e-01 -4.3841466307640076e-01</leafValues></_>
        <_>
          <internalNodes>
            0 -1 14 2.7592848986387253e-02</internalNodes>
          <leafValues>
            -3.2397145032882690e-01 4.6685484051704407e-01</leafValues></_>
        <_>
          <internalNodes>
            0 -1 37 -9.2257000505924225e-03</internalNodes>
          <leafValues>
            4.7973024845123291e-01 -2.9220673441886902e-01</leafValues></_>
        <_>
          <internalNodes>
            0 -1 2 5.9858837630599737e-04</internalNodes>
          <leafValues>
            1.4950098097324371e-01 -9.5593619346618652e-01</leafValues></_></weakClassifiers></_>
    <!-- stage 4 -->
    <_>
      <maxWeakCount>7</maxWeakCount>
      <stageThreshold>-1.6870282888412476e+00</stageThreshold>
      <weakClassifiers>
        <_>
          <internalNodes>
            0 -1 62 2.5458797812461853e-01</internalNodes>
          <leafValues>
            -8.8501411676406860e-01 1.</leafValues></_>
        <_>
          <internalNodes>
            0 -1 73 -4.3747253715991974e-02</internalNodes>
          <leafValues>
            1.7525933682918549e-01 -6.1861246824264526e-01</leafValues></_>
        <_>
          <internalNodes>
            0 -1 25 1.8335257482249290e-04</internalNodes>
          <leafValues>
            1.5460874140262604e-01 -6.5267086029052734e-01</leafValues></_>
        <_>
          <internalNodes>
            0 -1 74 -9.6450443379580975e-05</internalNodes>
          <leafValues>
            2.7010312676429749e-01 -4.3052101135253906e-01</leafValues></_>
        <_>
          <internalNodes>
            0 -1 75 6.1421273276209831e-03</internalNodes>
          <leafValues>
            1.7443467676639557e-01 -8.8655692338943481e-01</leafValues></_>
        <_>
          <internalNodes>
            0 -1 12 2.9245717450976372e-04</internalNodes>
          <leafValues>
            1.0329042375087738e-01 -7.5102466344833374e-01</leafValues></_>
        <_>
          <internalNodes>
            0 -1 93 1.0986968845827505e-04</internalNodes>
          <leafValues>
            1.7515295743942261e-01 -6.1267203092575073e-01</leafValues></_></weakClassifiers></_>
    <!-- stage 5 -->
    <_>
      <maxWeakCount>9</maxWeakCount>
      <stageThreshold>-1.9094345569610596e+00</stageThreshold>
      <weakClassifiers>
        <_>
          <internalNodes>
            0 -1 35 5.9889037162065506e-02</internalNodes>
          <leafValues>
            -8.8679248094558716e-01 1.</leafValues></_>
        <_>
          <internalNodes>
            0 -1 27 -3.3189821988344193e-02</internalNodes>
          <leafValues>
            2.3495621979236603e-01 -5.9459525346755981e-01</leafValues></_>
        <_>
          <internalNodes>
            0 -1 77 -4.3269270099699497e-04</internalNodes>
          <leafValues>
            2.5063577294349670e-01 -4.0743085741996765e-01</leafValues></_>
        <_>
          <internalNodes>
            0 -1 10 -8.0317817628383636e-03</internalNodes>
          <leafValues>
            -7.0874756574630737e-01 1.4989539980888367e-01</leafValues></_>
        <_>
          <internalNodes>
            0 -1 7 3.2183244824409485e-02</internalNodes>
          <leafValues>
            2.0449793338775635e-01 -5.9402340650558472e-01</leafValues></_>
        <_>
          <internalNodes>
            0 -1 64 -2.1510617807507515e-03</internalNodes>
          <leafValues>
            4.3234297633171082e-01 -2.7042663097381592e-01</leafValues></_>
        <_>
          <internalNodes>
            0 -1 57 -9.5197195187211037e-03</internalNodes>
          <leafValues>
            4.4798755645751953e-01 -2.9084813594818115e-01</leafValues></_>
        <_>
          <internalNodes>
            0 -1 39 3.6639003083109856e-03</internalNodes>
          <leafValues>
            1.2107797712087631e-01 -9.8270595073699951e-01</leafValues></_>
        <_>
          <internalNodes>
            0 -1 36 -1.5366025763796642e-05</internalNodes>
          <leafValues>
            2.0564211905002594e-01 -5.0817567110061646e-01</leafValues></_></weakClassifiers></_>
    <!-- stage 6 -->
    <_>
      <maxWeakCount>7</maxWeakCount>
      <stageThreshold>-1.4923709630966187e+00</stageThreshold>
      <weakClassifiers>
        <_>
          <internalNodes>
            0 -1 78 1.3157923519611359e-01</internalNodes>
          <leafValues>
            -8.8490563631057739e-01 6.6666668653488159e-01</leafValues></_>
        <_>
          <internalNodes>
            0 -1 68 -7.7734142541885376e-03</internalNodes>
          <leafValues>
            1.3348731398582458e-01 -5.8752501010894775e-01</leafValues></_>
        <_>
          <internalNodes>
            0 -1 11 -2.1105296909809113e-03</internalNodes>
          <leafValues>
            -9.2578345537185669e-01 4.7907732427120209e-02</leafValues></_>
        <_>
          <internalNodes>
            0 -1 1 -7.3641967028379440e-03</internalNodes>
          <leafValues>
            3.4961399435997009e-01 -3.3011412620544434e-01</leafValues></_>
        <_>
          <internalNodes>
            0 -1 65 -1.4838729985058308e-03</internalNodes>
          <leafValues>
            4.2369908094406128e-01 -2.8025403618812561e-01</leafValues></_>
        <_>
          <internalNodes>
            0 -1 23 1.1836948990821838e-01</internalNodes>
          <leafValues>
            -2.9103866219520569e-01 4.9537467956542969e-01</leafValues></_>
        <_>
          <internalNodes>
            0 -1 60 -6.2435846775770187e-03</internalNodes>
          <leafValues>
            -8.7099456787109375e-01 1.5383064746856689e-01</leafValues></_></weakClassifiers></_>
    <!-- stage 7 -->
    <_>
      <maxWeakCount>8</maxWeakCount>
      <stageThreshold>-1.7464699745178223e+00</stageThreshold>
      <weakClassifiers>
        <_>
          <internalNodes>
            0 -1 20 -3.9395880699157715e-01</internalNodes>
          <leafValues>
            7.1428573131561279e-01 -8.8668555021286011e-01</leafValues></_>
        <_>
          <internalNodes>
            0 -1 63 -1.5433375537395477e-01</internalNodes>
          <leafValues>
            1.2031490355730057e-01 -5.8841598033905029e-01</leafValues></_>
        <_>
          <internalNodes>
            0 -1 31 -7.6257074251770973e-03</internalNodes>
          <leafValues>
            -8.9791530370712280e-01 4.9368128180503845e-02</leafValues></_>
        <_>
          <internalNodes>
            0 -1 19 4.7016050666570663e-04</internalNodes>
          <leafValues>
            1.2373000383377075e-01 -9.1352808475494385e-01</leafValues></_>
        <_>
          <internalNodes>
            0 -1 29 -3.3986539347097278e-04</internalNodes>
          <leafValues>
            2.9667437076568604e-01 -3.4025713801383972e-01</leafValues></_>
        <_>
          <internalNodes>
            0 -1 87 -1.4262318145483732e-03</internalNodes>
          <leafValues>
            -8.7796366214752197e-01 1.0804745554924011e-01</leafValues></_>
        <_>
          <internalNodes>
            0 -1 45 9.1766845434904099e-03</internalNodes>
          <leafValues>
            9.7022473812103271e-02 -8.5462486743927002e-01</leafValues></_>
        <_>
          <internalNodes>
            0 -1 46 1.0283677838742733e-03</internalNodes>
          <leafValues>
            -3.0927938222885132e-01 3.6212718486785889e-01</leafValues></_></weakClassifiers></_>
    <!-- stage 8 -->
    <_>
      <maxWeakCount>9</maxWeakCount>
      <stageThreshold>-1.9686170816421509e+00</stageThreshold>
      <weakClassifiers>
        <_>
          <internalNodes>
            0 -1 26 -2.0398809015750885e-01</internalNodes>
          <leafValues>
            7.1428573131561279e-01 -8.8668555021286011e-01</leafValues></_>
        <_>
          <internalNodes>
            0 -1 22 1.8351270258426666e-01</internalNodes>
          <leafValues>
            -5.8297365903854370e-01 1.5534682571887970e-01</leafValues></_>
        <_>
          <internalNodes>
            0 -1 38 2.6480737142264843e-03</internalNodes>
          <leafValues>
            -3.5014754533767700e-01 3.1963050365447998e-01</leafValues></_>
        <_>
          <internalNodes>
            0 -1 66 -4.3100509792566299e-03</internalNodes>
          <leafValues>
            3.0802184343338013e-01 -3.3306372165679932e-01</leafValues></_>
        <_>
          <internalNodes>
            0 -1 18 -2.3637942969799042e-02</internalNodes>
          <leafValues>
            5.5965197086334229e-01 -1.8825823068618774e-01</leafValues></_>
        <_>
          <internalNodes>
            0 -1 3 1.3219732863944955e-05</internalNodes>
          <leafValues>
            3.1314396858215332e-01 -3.2373964786529541e-01</leafValues></_>
        <_>
          <internalNodes>
            0 -1 15 1.7846659829956479e-05</internalNodes>
          <leafValues>
            2.4330542981624603e-01 -5.3919619321823120e-01</leafValues></_>
        <_>
          <internalNodes>
            0 -1 42 -7.0325436536222696e-04</internalNodes>
          <leafValues>
            3.6690300703048706e-01 -3.1510084867477417e-01</leafValues></_>
        <_>
          <internalNodes>
            0 -1 89 1.5844812151044607e-03</internalNodes>
          <leafValues>
            1.2696114182472229e-01 -9.4012022018432617e-01</leafValues></_></weakClassifiers></_>
    <!-- stage 9 -->
    <_>
      <maxWeakCount>7</maxWeakCount>
      <stageThreshold>-1.6587350368499756e+00</stageThreshold>
      <weakClassifiers>
        <_>
          <internalNodes>
            0 -1 40 -1.1898488551378250e-01</internalNodes>
          <leafValues>
            1. -8.8501411676406860e-01</leafValues></_>
        <_>
          <internalNodes>
            0 -1 33 1.7370916903018951e-01</internalNodes>
          <leafValues>
            -6.1855179071426392e-01 1.7711756750941277e-02</leafValues></_>
        <_>
          <internalNodes>
            0 -1 53 -5.2554495632648468e-03</internalNodes>
          <leafValues>
            3.6888799071311951e-01 -3.0066022276878357e-01</leafValues></_>
        <_>
          <internalNodes>
            0 -1 80 5.1046409644186497e-03</internalNodes>
          <leafValues>
            1.2671807408332825e-01 -8.5971999168395996e-01</leafValues></_>
        <_>
          <internalNodes>
            0 -1 55 2.4308478459715843e-03</internalNodes>
          <leafValues>
            -3.5980108380317688e-01 3.1470683217048645e-01</leafValues></_>
        <_>
          <internalNodes>
            0 -1 52 -4.1461215005256236e-05</internalNodes>
          <leafValues>
            2.7477774024009705e-01 -3.7429100275039673e-01</leafValues></_>
        <_>
          <internalNodes>
            0 -1 8 -6.6042155958712101e-04</internalNodes>
          <leafValues>
            -7.7902984619140625e-01 1.1660156399011612e-01</leafValues></_></weakClassifiers></_>
    <!-- stage 10 -->
    <_>
      <maxWeakCount>8</maxWeakCount>
      <stageThreshold>-1.6242930889129639e+00</stageThreshold>
      <weakClassifiers>
        <_>
          <internalNodes>
            0 -1 69 -1.6425645351409912e-01</internalNodes>
          <leafValues>
            5.0000000000000000e-01 -8.8657844066619873e-01</leafValues></_>
        <_>
          <internalNodes>
            0 -1 6 -7.6129101216793060e-04</internalNodes>
          <leafValues>
            -6.6007709503173828e-01 -9.4636239111423492e-02</leafValues></_>
        <_>
          <internalNodes>
            0 -1 43 1.8943795561790466e-01</internalNodes>
          <leafValues>
            3.1193058937788010e-02 -1.</leafValues></_>
        <_>
          <internalNodes>
            0 -1 81 2.8533290605992079e-04</internalNodes>
          <leafValues>
            1.5318961441516876e-01 -6.4674353599548340e-01</leafValues></_>
        <_>
          <internalNodes>
            0 -1 61 -3.8594901561737061e-03</internalNodes>
          <leafValues>
            3.7981790304183960e-01 -3.0573716759681702e-01</leafValues></_>
        <_>
          <internalNodes>
            0 -1 84 -1.8703115638345480e-03</internalNodes>
          <leafValues>
            -9.2277467250823975e-01 1.2958607077598572e-01</leafValues></_>
        <_>
          <internalNodes>
            0 -1 85 -3.8458223571069539e-05</internalNodes>
          <leafValues>
            2.7032727003097534e-01 -3.5022085905075073e-01</leafValues></_>
        <_>
          <internalNodes>
            0 -1 47 6.8860442843288183e-04</internalNodes>
          <leafValues>
            -2.4181823432445526e-01 4.2587447166442871e-01</leafValues></_></weakClassifiers></_>
    <!-- stage 11 -->
    <_>
      <maxWeakCount>7</maxWeakCount>
      <stageThreshold>-1.6413810253143311e+00</stageThreshold>
      <weakClassifiers>
        <_>
          <internalNodes>
            0 -1 72 2.0255902409553528e-01</internalNodes>
          <leafValues>
            -8.8679248094558716e-01 1.</leafValues></_>
        <_>
          <internalNodes>
            0 -1 91 5.9097306802868843e-05</internalNodes>
          <leafValues>
            -2.4463650584220886e-01 -7.6615554094314575e-01</leafValues></_>
        <_>
          <internalNodes>
            0 -1 83 4.8747108667157590e-04</internalNodes>
          <leafValues>
            6.3576690852642059e-02 -8.7708765268325806e-01</leafValues></_>
        <_>
          <internalNodes>
            0 -1 51 -2.9892183374613523e-03</internalNodes>
          <leafValues>
            4.7593218088150024e-01 -2.3781748116016388e-01</leafValues></_>
        <_>
          <internalNodes>
            0 -1 16 1.3889113324694335e-04</internalNodes>
          <leafValues>
            2.1032387018203735e-01 -6.2335318326950073e-01</leafValues></_>
        <_>
          <internalNodes>
            0 -1 44 3.5522773861885071e-02</internalNodes>
          <leafValues>
            -1.9389715790748596e-01 6.0220211744308472e-01</leafValues></_>
        <_>
          <internalNodes>
            0 -1 76 -5.5053060350473970e-05</internalNodes>
          <leafValues>
            3.7085735797882080e-01 -3.5213798284530640e-01</leafValues></_></weakClassifiers></_>
    <!-- stage 12 -->
    <_>
      <maxWeakCount>8</maxWeakCount>
      <stageThreshold>-1.7703779935836792e+00</stageThreshold>
      <weakClassifiers>
        <_>
          <internalNodes>
            0 -1 70 -9.7544789314270020e-03</internalNodes>
          <leafValues>
            7.5000000000000000e-01 -8.8846880197525024e-01</leafValues></_>
        <_>
          <internalNodes>
            0 -1 41 1.6084766015410423e-02</internalNodes>
          <leafValues>
            -5.4801249504089355e-01 4.7884473204612732e-01</leafValues></_>
        <_>
          <internalNodes>
            0 -1 9 3.6955202813260257e-04</internalNodes>
          <leafValues>
            9.8568916320800781e-02 -6.7846685647964478e-01</leafValues></_>
        <_>
          <internalNodes>
            0 -1 54 2.6470497250556946e-03</internalNodes>
          <leafValues>
            1.5471793711185455e-01 -5.3831374645233154e-01</leafValues></_>
        <_>
          <internalNodes>
            0 -1 71 -3.1581663643009961e-04</internalNodes>
          <leafValues>
            3.6948063969612122e-01 -2.6570850610733032e-01</leafValues></_>
        <_>
          <internalNodes>
            0 -1 56 -1.4368018601089716e-03</internalNodes>
          <leafValues>
            3.9151018857955933e-01 -2.7553021907806396e-01</leafValues></_>
        <_>
          <internalNodes>
            0 -1 4 1.8039083806797862e-04</internalNodes>
          <leafValues>
            -2.4916744232177734e-01 3.7644514441490173e-01</leafValues></_>
        <_>
          <internalNodes>
            0 -1 92 -4.4826134399045259e-05</internalNodes>
          <leafValues>
            -3.9639860391616821e-01 2.8138837218284607e-01</leafValues></_></weakClassifiers></_></stages>
  <features>
    <_>
      <rects>
        <_>
          0 0 14 2 -1.</_>
        <_>
          0 0 7 1 2.</_>
        <_>
          7 1 7 1 2.</_></rects>
      <tilted>0</tilted></_>
    <_>
      <rects>
        <_>
          0 0 24 6 -1.</_>
        <_>
          0 0 12 3 2.</_>
        <_>
          12 3 12 3 2.</_></rects>
      <tilted>0</tilted></_>
    <_>
      <rects>
        <_>
          0 1 2 2 -1.</_>
        <_>
          0 2 2 1 2.</_></rects>
      <tilted>0</tilted></_>
    <_>
      <rects>
        <_>
          0 4 2 12 -1.</_>
        <_>
          0 8 2 4 3.</_></rects>
      <tilted>0</tilted></_>
    <_>
      <rects>
        <_>
          0 7 2 2 -1.</_>
        <_>
          1 7 1 2 2.</_></rects>
      <tilted>0</tilted></_>
    <_>
      <rects>
        <_>
          0 8 24 6 -1.</_>
        <_>
          8 8 8 6 3.</_></rects>
      <tilted>0</tilted></_>
    <_>
      <rects>
        <_>
          0 10 2 10 -1.</_>
        <_>
          0 15 2 5 2.</_></rects>
      <tilted>0</tilted></_>
    <_>
      <rects>
        <_>
          0 20 24 4 -1.</_>
        <_>
          12 20 12 4 2.</_></rects>
      <tilted>0</tilted></_>
    <_>
      <rects>
        <_>
          0 21 2 3 -1.</_>
        <_>
          1 21 1 3 2.</_></rects>
      <tilted>0</tilted></_>
    <_>
      <rects>
        <_>
          0 22 2 2 -1.</_>
        <_>
          1 22 1 2 2.</_></rects>
      <tilted>0</tilted></_>
    <_>
      <rects>
        <_>
          0 23 18 1 -1.</_>
        <_>
          9 23 9 1 2.</_></rects>
      <tilted>0</tilted></_>
    <_>
      <rects>
        <_>
          1 0 6 1 -1.</_>
        <_>
          3 0 2 1 3.</_></rects>
      <tilted>0</tilted></_>
    <_>
      <rects>
        <_>
          1 3 1 3 -1.</_>
        <_>
          1 4 1 1 3.</_></rects>
      <tilted>0</tilted></_>
    <_>
      <rects>
        <_>
          1 3 2 10 -1.</_>
        <_>
          1 3 1 5 2.</_>
        <_>
          2 8 1 5 2.</_></rects>
      <tilted>0</tilted></_>
    <_>
      <rects>
        <_>
          1 9 12 5 -1.</_>
        <_>
          7 9 6 5 2.</_></rects>
      <tilted>0</tilted></_>
    <_>
      <rects>
        <_>
          1 10 2 8 -1.</_>
        <_>
          1 14 2 4 2.</_></rects>
      <tilted>0</tilted></_>
    <_>
      <rects>
        <_>
          1 12 1 3 -1.</_>
        <_>
          1 13 1 1 3.</_></rects>
      <tilted>0</tilted></_>
    <_>
      <rects>
        <_>
          1 13 5 3 -1.</_>
        <_>
          1 14 5 1 3.</_></rects>
      <tilted>0</tilted></_>
    <_>
      <rects>
        <_>
          1 18 12 6 -1.</_>
        <_>
          1 20 12 2 3.</_></rects>
      <tilted>0</tilted></_>
    <_>
      <rects>
        <_>
          2 0 2 1 -1.</_>
        <_>
          3 0 1 1 2.</_></rects>
      <tilted>0</tilted></_>
    <_>
      <rects>
        <_>
          2 0 18 24 -1.</_>
        <_>
          2 0 9 12 2.</_>
        <_>
          11 12 9 12 2.</_></rects>
      <tilted>0</tilted></_>
    <_>
      <rects>
        <_>
          2 2 10 16 -1.</_>
        <_>
          2 2 5 8 2.</_>
        <_>
          7 10 5 8 2.</_></rects>
      <tilted>0</tilted></_>
    <_>
      <rects>
        <_>
          2 4 21 8 -1.</_>
        <_>
          9 4 7 8 3.</_></rects>
      <tilted>0</tilted></_>
    <_>
      <rects>
        <_>
          2 5 15 19 -1.</_>
        <_>
          7 5 5 19 3.</_></rects>
      <tilted>0</tilted></_>
    <_>
      <rects>
        <_>
          2 8 2 3 -1.</_>
        <_>
          2 9 2 1 3.</_></rects>
      <tilted>0</tilted></_>
    <_>
      <rects>
        <_>
          2 11 2 2 -1.</_>
        <_>
          3 11 1 2 2.</_></rects>
      <tilted>0</tilted></_>
    <_>
      <rects>
        <_>
          2 12 13 12 -1.</_>
        <_>
          2 16 13 4 3.</_></rects>
      <tilted>0</tilted></_>
    <_>
      <rects>
        <_>
          2 18 12 6 -1.</_>
        <_>
          2 20 12 2 3.</_></rects>
      <tilted>0</tilted></_>
    <_>
      <rects>
        <_>
          2 22 2 1 -1.</_>
        <_>
          3 22 1 1 2.</_></rects>
      <tilted>0</tilted></_>
    <_>
      <rects>
        <_>
          3 0 6 3 -1.</_>
        <_>
          3 1 6 1 3.</_></rects>
      <tilted>0</tilted></_>
    <_>
      <rects>
        <_>
          3 4 10 10 -1.</_>
        <_>
          3 4 5 5 2.</_>
        <_>
          8 9 5 5 2.</_></rects>
      <tilted>0</tilted></_>
    <_>
      <rects>
        <_>
          3 5 2 9 -1.</_>
        <_>
          3 8 2 3 3.</_></rects>
      <tilted>0</tilted></_>
    <_>
      <rects>
        <_>
          3 6 1 3 -1.</_>
        <_>
          3 7 1 1 3.</_></rects>
      <tilted>0</tilted></_>
    <_>
      <rects>
        <_>
          3 7 21 9 -1.</_>
        <_>
          10 7 7 9 3.</_></rects>
      <tilted>0</tilted></_>
    <_>
      <rects>
        <_>
          3 9 21 3 -1.</_>
        <_>
          10 9 7 3 3.</_></rects>
      <tilted>0</tilted></_>
    <_>
      <rects>
        <_>
          3 12 21 1 -1.</_>
        <_>
          10 12 7 1 3.</_></rects>
      <tilted>0</tilted></_>
    <_>
      <rects>
        <_>
          4 8 14 2 -1.</_>
        <_>
          4 9 14 1 2.</_></rects>
      <tilted>0</tilted></_>
    <_>
      <rects>
        <_>
          4 9 12 3 -1.</_>
        <_>
          8 9 4 3 3.</_></rects>
      <tilted>0</tilted></_>
    <_>
      <rects>
        <_>
          4 14 9 1 -1.</_>
        <_>
          7 14 3 1 3.</_></rects>
      <tilted>0</tilted></_>
    <_>
      <rects>
        <_>
          4 14 6 3 -1.</_>
        <_>
          4 15 6 1 3.</_></rects>
      <tilted>0</tilted></_>
    <_>
      <rects>
        <_>
          4 17 14 6 -1.</_>
        <_>
          4 19 14 2 3.</_></rects>
      <tilted>0</tilted></_>
    <_>
      <rects>
        <_>
          4 21 10 3 -1.</_>
        <_>
          4 22 10 1 3.</_></rects>
      <tilted>0</tilted></_>
    <_>
      <rects>
        <_>
          5 0 4 4 -1.</_>
        <_>
          5 0 2 2 2.</_>
        <_>
          7 2 2 2 2.</_></rects>
      <tilted>0</tilted></_>
    <_>
      <rects>
        <_>
          5 0 14 18 -1.</_>
        <_>
          5 9 14 9 2.</_></rects>
      <tilted>0</tilted></_>
    <_>
      <rects>
        <_>
          6 3 9 9 -1.</_>
        <_>
          6 6 9 3 3.</_></rects>
      <tilted>0</tilted></_>
    <_>
      <rects>
        <_>
          7 0 3 23 -1.</_>
        <_>
          8 0 1 23 3.</_></rects>
      <tilted>0</tilted></_>
    <_>
      <rects>
        <_>
          7 9 2 6 -1.</_>
        <_>
          7 9 1 3 2.</_>
        <_>
          8 12 1 3 2.</_></rects>
      <tilted>0</tilted></_>
    <_>
      <rects>
        <_>
          7 10 3 3 -1.</_>
        <_>
          7 11 3 1 3.</_></rects>
      <tilted>0</tilted></_>
    <_>
      <rects>
        <_>
          7 18 6 6 -1.</_>
        <_>
          7 21 6 3 2.</_></rects>
      <tilted>0</tilted></_>
    <_>
      <rects>
        <_>
          7 20 4 2 -1.</_>
        <_>
          7 20 2 1 2.</_>
        <_>
          9 21 2 1 2.</_></rects>
      <tilted>0</tilted></_>
    <_>
      <rects>
        <_>
          8 1 8 8 -1.</_>
        <_>
          8 1 4 4 2.</_>
        <_>
          12 5 4 4 2.</_></rects>
      <tilted>0</tilted></_>
    <_>
      <rects>
        <_>
          8 1 14 2 -1.</_>
        <_>
          8 1 7 1 2.</_>
        <_>
          15 2 7 1 2.</_></rects>
      <tilted>0</tilted></_>
    <_>
      <rects>
        <_>
          8 2 3 1 -1.</_>
        <_>
          9 2 1 1 3.</_></rects>
      <tilted>0</tilted></_>
    <_>
      <rects>
        <_>
          8 10 6 6 -1.</_>
        <_>
          10 10 2 6 3.</_></rects>
      <tilted>0</tilted></_>
    <_>
      <rects>
        <_>
          9 0 6 2 -1.</_>
        <_>
          11 0 2 2 3.</_></rects>
      <tilted>0</tilted></_>
    <_>
      <rects>
        <_>
          9 9 3 9 -1.</_>
        <_>
          9 12 3 3 3.</_></rects>
      <tilted>0</tilted></_>
    <_>
      <rects>
        <_>
          9 10 3 6 -1.</_>
        <_>
          10 10 1 6 3.</_></rects>
      <tilted>0</tilted></_>
    <_>
      <rects>
        <_>
          9 12 1 12 -1.</_>
        <_>
          9 18 1 6 2.</_></rects>
      <tilted>0</tilted></_>
    <_>
      <rects>
        <_>
          9 12 2 12 -1.</_>
        <_>
          9 18 2 6 2.</_></rects>
      <tilted>0</tilted></_>
    <_>
      <rects>
        <_>
          9 13 2 10 -1.</_>
        <_>
          9 18 2 5 2.</_></rects>
      <tilted>0</tilted></_>
    <_>
      <rects>
        <_>
          9 23 12 1 -1.</_>
        <_>
          15 23 6 1 2.</_></rects>
      <tilted>0</tilted></_>
    <_>
      <rects>
        <_>
          10 1 12 2 -1.</_>
        <_>
          14 1 4 2 3.</_></rects>
      <tilted>0</tilted></_>
    <_>
      <rects>
        <_>
          10 1 12 20 -1.</_>
        <_>
          10 1 6 10 2.</_>
        <_>
          16 11 6 10 2.</_></rects>
      <tilted>0</tilted></_>
    <_>
      <rects>
        <_>
          10 2 14 12 -1.</_>
        <_>
          17 2 7 12 2.</_></rects>
      <tilted>0</tilted></_>
    <_>
      <rects>
        <_>
          10 4 6 2 -1.</_>
        <_>
          12 4 2 2 3.</_></rects>
      <tilted>0</tilted></_>
    <_>
      <rects>
        <_>
          10 18 10 2 -1.</_>
        <_>
          10 18 5 1 2.</_>
        <_>
          15 19 5 1 2.</_></rects>
      <tilted>0</tilted></_>
    <_>
      <rects>
        <_>
          10 20 13 4 -1.</_>
        <_>
          10 22 13 2 2.</_></rects>
      <tilted>0</tilted></_>
    <_>
      <rects>
        <_>
          11 8 4 12 -1.</_>
        <_>
          11 14 4 6 2.</_></rects>
      <tilted>0</tilted></_>
    <_>
      <rects>
        <_>
          11 11 6 4 -1.</_>
        <_>
          11 11 3 2 2.</_>
        <_>
          14 13 3 2 2.</_></rects>
      <tilted>0</tilted></_>
    <_>
      <rects>
        <_>
          11 11 12 13 -1.</_>
        <_>
          15 11 4 13 3.</_></rects>
      <tilted>0</tilted></_>
    <_>
      <rects>
        <_>
          11 19 1 4 -1.</_>
        <_>
          11 21 1 2 2.</_></rects>
      <tilted>0</tilted></_>
    <_>
      <rects>
        <_>
          11 20 3 3 -1.</_>
        <_>
          12 20 1 3 3.</_></rects>
      <tilted>0</tilted></_>
    <_>
      <rects>
        <_>
          12 0 11 15 -1.</_>
        <_>
          12 5 11 5 3.</_></rects>
      <tilted>0</tilted></_>
    <_>
      <rects>
        <_>
          12 8 2 16 -1.</_>
        <_>
          12 16 2 8 2.</_></rects>
      <tilted>0</tilted></_>
    <_>
      <rects>
        <_>
          12 12 3 3 -1.</_>
        <_>
          12 13 3 1 3.</_></rects>
      <tilted>0</tilted></_>
    <_>
      <rects>
        <_>
          12 16 6 4 -1.</_>
        <_>
          14 16 2 4 3.</_></rects>
      <tilted>0</tilted></_>
    <_>
      <rects>
        <_>
          13 1 2 3 -1.</_>
        <_>
          13 2 2 1 3.</_></rects>
      <tilted>0</tilted></_>
    <_>
      <rects>
        <_>
          13 3 4 4 -1.</_>
        <_>
          15 3 2 4 2.</_></rects>
      <tilted>0</tilted></_>
    <_>
      <rects>
        <_>
          14 0 6 24 -1.</_>
        <_>
          14 0 3 12 2.</_>
        <_>
          17 12 3 12 2.</_></rects>
      <tilted>0</tilted></_>
    <_>
      <rects>
        <_>
          15 4 1 18 -1.</_>
        <_>
          15 10 1 6 3.</_></rects>
      <tilted>0</tilted></_>
    <_>
      <rects>
        <_>
          15 20 9 2 -1.</_>
        <_>
          18 20 3 2 3.</_></rects>
      <tilted>0</tilted></_>
    <_>
      <rects>
        <_>
          16 17 3 1 -1.</_>
        <_>
          17 17 1 1 3.</_></rects>
      <tilted>0</tilted></_>
    <_>
      <rects>
        <_>
          16 21 2 1 -1.</_>
        <_>
          17 21 1 1 2.</_></rects>
      <tilted>0</tilted></_>
    <_>
      <rects>
        <_>
          19 1 1 3 -1.</_>
        <_>
          19 2 1 1 3.</_></rects>
      <tilted>0</tilted></_>
    <_>
      <rects>
        <_>
          19 1 3 2 -1.</_>
        <_>
          19 2 3 1 2.</_></rects>
      <tilted>0</tilted></_>
    <_>
      <rects>
        <_>
          19 18 2 1 -1.</_>
        <_>
          20 18 1 1 2.</_></rects>
      <tilted>0</tilted></_>
    <_>
      <rects>
        <_>
          20 3 2 8 -1.</_>
        <_>
          20 3 1 4 2.</_>
        <_>
          21 7 1 4 2.</_></rects>
      <tilted>0</tilted></_>
    <_>
      <rects>
        <_>
          20 3 4 3 -1.</_>
        <_>
          20 4 4 1 3.</_></rects>
      <tilted>0</tilted></_>
    <_>
      <rects>
        <_>
          20 8 1 2 -1.</_>
        <_>
          20 9 1 1 2.</_></rects>
      <tilted>0</tilted></_>
    <_>
      <rects>
        <_>
          21 3 2 3 -1.</_>
        <_>
          21 4 2 1 3.</_></rects>
      <tilted>0</tilted></_>
    <_>
      <rects>
        <_>
          21 10 2 2 -1.</_>
        <_>
          21 10 1 1 2.</_>
        <_>
          22 11 1 1 2.</_></rects>
      <tilted>0</tilted></_>
    <_>
      <rects>
        <_>
          21 11 2 7 -1.</_>
        <_>
          22 11 1 7 2.</_></rects>
      <tilted>0</tilted></_>
    <_>
      <rects>
        <_>
          23 8 1 2 -1.</_>
        <_>
          23 9 1 1 2.</_></rects>
      <tilted>0</tilted></_>
    <_>
      <rects>
        <_>
          23 18 1 2 -1.</_>
        <_>
          23 19 1 1 2.</_></rects>
      <tilted>0</tilted></_></features></cascade>
</opencv_storage>
